svm_type c_svc
kernel_type rbf
gamma 0.16666666666666666
nr_class 3
total_sv 174
rho -0.6429400201950012 -1.5641633836647106 -0.9795106357430744
label 1 -1 0
nr_sv 70 55 49
SV
0.0 1.0 1:0.0 
0.910952222086433 1.0 1:0.0 
1.0 1.0 1:0.0 
1.0 1.0 1:0.0 
1.0 1.0 1:0.0 
1.0 1.0 1:0.0 
1.0 1.0 1:0.0 
1.0 1.0 1:0.0 
1.0 1.0 1:-1.4 
0.2073026682607891 0.0 1:1.4 2:-2.366 
1.0 1.0 1:0.0 
1.0 1.0 1:0.0 
1.0 1.0 1:0.0 
1.0 1.0 1:0.0 
1.0 0.0 1:-1.4 2:-1.4 
1.0 1.0 1:0.0 
1.0 1.0 1:-1.4 
0.0 1.0 1:1.2 2:1.1 
1.0 0.0 1:-1.9879999 2:1.9879999 
1.0 1.0 1:0.0 
1.0 1.0 1:0.0 
0.0 1.0 1:1.1122 
1.0 1.0 1:0.0 
0.0 0.9114194425912004 1:1.2 2:-1.4 
1.0 0.0 1:-1.9879999 2:-1.4 
1.0 1.0 1:0.0 
1.0 1.0 1:-1.4 
1.0 1.0 1:-1.4 
1.0 1.0 1:0.0 
1.0 0.0 1:-2.366 2:-1.4 
1.0 1.0 1:0.0 
1.0 1.0 1:0.0 
1.0 1.0 1:0.0 
1.0 1.0 1:-1.4 
1.0 1.0 1:0.0 
1.0 1.0 1:0.0 
1.0 1.0 1:0.0 
1.0 0.0 1:2.366 2:-1.4 
1.0 1.0 1:-1.4 
0.6278229940120384 0.0 1:1.6800001 2:1.9879999 
0.5005962191680193 0.0 1:-1.4 2:-1.4 3:-1.4 4:1.4 5:-1.4 6:-1.4 
1.0 0.0 1:-1.4 2:-1.4 3:-1.4 
0.0 1.0 1:1.2 
1.0 1.0 1:0.0 
1.0 1.0 1:-1.4 
1.0 1.0 1:0.0 
0.8804698488888235 0.0 1:-1.4 2:1.4 3:1.9879999 4:2.366 
1.0 1.0 1:0.0 
1.0 0.0 1:-1.9879999 2:-1.8199999 
0.8161644613696164 1.0 1:0.0 2:-1.1 
0.0 1.0 1:0.0 2:1.4 
1.0 0.0 1:1.9879999 2:-1.9879999 
1.0 0.0 1:-1.4 2:-1.4 
1.0 1.0 1:0.0 
1.0 0.0 1:2.366 
1.0 1.0 1:0.0 
1.0 0.5101139731477919 1:-1.4 2:1.2 
1.0 0.0 1:-1.4 2:1.4 
1.0 0.0 1:-1.4 2:-1.9879999 
0.6680524377676651 0.0 1:1.8199999 2:-1.4 
0.733362202498532 0.0 1:1.9879999 
0.0 0.4421847525040421 1:1.4 
0.6166841266001227 0.0 1:1.4 2:-1.4 3:-1.4 4:-1.6800001 5:-1.4 
0.0 1.0 1:1.4 
1.0 0.0 1:-1.4 2:-1.4 
0.0 1.0 1:1.4 
0.0 1.0 1:1.4 
0.0 1.0 1:1.4 
0.0 1.0 1:1.4 
0.0 1.0 1:1.4 
-1.0 0.0 1:1.9879999 2:-1.4 3:-1.4 
-1.0 1.0 1:2.366 
-1.0 1.0 1:1.4 2:-1.4 
-1.0 1.0 1:0.0 
-1.0 1.0 1:0.0 
-1.0 1.0 1:-1.4 2:1.4 
-1.0 0.0 1:-1.4 2:-1.4 
-1.0 0.0 1:-1.4 2:-1.4 
-1.0 1.0 1:0.0 
-1.0 0.0 1:1.9879999 2:-1.4 3:-1.4 
-1.0 0.0 1:-1.4 2:-1.8199999 3:1.8199999 
-1.0 0.0 1:-1.4 2:-1.4 3:1.4 4:1.4 
-1.0 1.0 1:0.0 
-1.0 1.0 1:0.0 
-0.48259430060725783 0.0 1:-1.9879999 2:1.4 
-1.0 1.0 1:0.0 
-1.0 1.0 1:0.0 
-0.4788128800447822 0.0 1:-1.4 
-1.0 0.0 1:-1.4 
-1.0 0.33714554333634045 1:-1.4 2:1.6800001 
-1.0 0.0 1:-1.4 
-1.0 1.0 1:1.4 
-1.0 1.0 1:-1.2 
-1.0 0.0 1:-1.4 
-1.0 0.0 1:-1.4 
-1.0 1.0 1:0.0 
-1.0 1.0 1:0.0 
-1.0 0.0 1:-1.4 2:-1.4 3:-1.8199999 
-1.0 0.0 1:-1.4 
-1.0 0.0 1:-1.4 
-1.0 1.0 1:0.0 
-1.0 1.0 1:0.0 
-1.0 1.0 1:1.4 2:-1.4 
-1.0 1.0 1:1.8199999 2:1.4 
-1.0 1.0 1:0.0 
-1.0 0.0 1:-1.4 
-1.0 0.0 1:-1.4 
-1.0 0.0 1:-1.4 
-1.0 1.0 1:0.0 
-1.0 0.6212472577273841 1:-1.4 
-1.0 1.0 1:1.8199999 
-1.0 1.0 1:0.0 2:-1.2 
-1.0 1.0 1:-1.4 
-1.0 0.0 1:-1.4 2:-1.4 
-1.0 1.0 1:0.0 
-1.0 1.0 1:0.0 
-1.0 1.0 1:-1.4 
-1.0 1.0 1:0.0 
-1.0 1.0 1:0.0 
-1.0 0.0 1:-1.4 2:-1.4 
-1.0 1.0 1:0.0 
-1.0 1.0 1:0.0 
-1.0 1.0 1:0.0 
-1.0 0.8219074839637286 1:-1.4 
-1.0 1.0 1:0.0 
-1.0 -1.0 1:1.6800001 
-1.0 -1.0 1:1.2 
-1.0 -1.0 1:-1.2 
-1.0 -0.748964388957609 1:0.0 2:1.1 3:-1.2 
-1.0 -1.0 1:-1.4 2:1.4 3:-1.4 
-1.0 -1.0 1:2.366 
-1.0 -1.0 1:1.4 2:-1.4 3:1.4 
-0.8637181682430347 -0.0 1:0.0 
-1.0 -0.0 1:0.0 
-1.0 -0.0 1:0.0 
-1.0 -0.0 1:0.0 
-1.0 -0.0 1:0.0 
-1.0 -0.0 1:0.0 
-1.0 -0.0 1:0.0 
-1.0 -0.0 1:0.0 
-1.0 -0.0 1:0.0 
-1.0 -0.0 1:0.0 
-1.0 -0.0 1:0.0 
-1.0 -0.0 1:0.0 
-1.0 -0.0 1:0.0 
-1.0 -0.0 1:0.0 
-1.0 -0.21268783223882234 1:0.0 
-1.0 -1.0 1:0.0 
-1.0 -1.0 1:0.0 
-1.0 -1.0 1:0.0 
-1.0 -1.0 1:0.0 
-1.0 -1.0 1:0.0 
-1.0 -1.0 1:0.0 
-1.0 -1.0 1:0.0 
-1.0 -1.0 1:0.0 
-1.0 -1.0 1:0.0 
-1.0 -1.0 1:0.0 
-1.0 -1.0 1:0.0 
-1.0 -1.0 1:0.0 
-1.0 -1.0 1:0.0 
-1.0 -1.0 1:0.0 
-1.0 -1.0 1:0.0 
-1.0 -1.0 1:0.0 
-1.0 -1.0 1:0.0 
-1.0 -1.0 1:0.0 
-1.0 -1.0 1:0.0 
-1.0 -1.0 1:0.0 
-1.0 -1.0 1:0.0 
-1.0 -1.0 1:0.0 
-1.0 -1.0 1:0.0 
-1.0 -1.0 1:0.0 
-1.0 -1.0 1:0.0 
-1.0 -1.0 1:0.0 
-1.0 -0.818648063831022 1:0.0 
